digraph Tree {
node [shape=box, style="filled, rounded", color="black", fontname=helvetica] ;
edge [fontname=helvetica] ;
0 [label="number <= 4.5\ngini = 0.493\nsamples = 50\nvalue = [22, 28]\nclass = False", fillcolor="#d5eaf9"] ;
1 [label="gini = 0.0\nsamples = 2\nvalue = [0, 2]\nclass = False", fillcolor="#399de5"] ;
0 -> 1 [labeldistance=2.5, labelangle=45, headlabel="True"] ;
2 [label="number <= 5.5\ngini = 0.497\nsamples = 48\nvalue = [22, 26]\nclass = False", fillcolor="#e1f0fb"] ;
0 -> 2 [labeldistance=2.5, labelangle=-45, headlabel="False"] ;
3 [label="gini = 0.0\nsamples = 1\nvalue = [1, 0]\nclass = True", fillcolor="#e58139"] ;
2 -> 3 ;
4 [label="number <= 7.5\ngini = 0.494\nsamples = 47\nvalue = [21, 26]\nclass = False", fillcolor="#d9ecfa"] ;
2 -> 4 ;
5 [label="gini = 0.0\nsamples = 1\nvalue = [0, 1]\nclass = False", fillcolor="#399de5"] ;
4 -> 5 ;
6 [label="number <= 9.5\ngini = 0.496\nsamples = 46\nvalue = [21, 25]\nclass = False", fillcolor="#dfeffb"] ;
4 -> 6 ;
7 [label="gini = 0.0\nsamples = 1\nvalue = [1, 0]\nclass = True", fillcolor="#e58139"] ;
6 -> 7 ;
8 [label="number <= 10.5\ngini = 0.494\nsamples = 45\nvalue = [20, 25]\nclass = False", fillcolor="#d7ebfa"] ;
6 -> 8 ;
9 [label="gini = 0.0\nsamples = 1\nvalue = [0, 1]\nclass = False", fillcolor="#399de5"] ;
8 -> 9 ;
10 [label="number <= 11.5\ngini = 0.496\nsamples = 44\nvalue = [20, 24]\nclass = False", fillcolor="#deeffb"] ;
8 -> 10 ;
11 [label="gini = 0.0\nsamples = 1\nvalue = [1, 0]\nclass = True", fillcolor="#e58139"] ;
10 -> 11 ;
12 [label="number <= 16.5\ngini = 0.493\nsamples = 43\nvalue = [19, 24]\nclass = False", fillcolor="#d6ebfa"] ;
10 -> 12 ;
13 [label="gini = 0.0\nsamples = 2\nvalue = [0, 2]\nclass = False", fillcolor="#399de5"] ;
12 -> 13 ;
14 [label="number <= 17.5\ngini = 0.497\nsamples = 41\nvalue = [19, 22]\nclass = False", fillcolor="#e4f2fb"] ;
12 -> 14 ;
15 [label="gini = 0.0\nsamples = 1\nvalue = [1, 0]\nclass = True", fillcolor="#e58139"] ;
14 -> 15 ;
16 [label="number <= 18.5\ngini = 0.495\nsamples = 40\nvalue = [18, 22]\nclass = False", fillcolor="#dbedfa"] ;
14 -> 16 ;
17 [label="gini = 0.0\nsamples = 1\nvalue = [0, 1]\nclass = False", fillcolor="#399de5"] ;
16 -> 17 ;
18 [label="number <= 19.5\ngini = 0.497\nsamples = 39\nvalue = [18, 21]\nclass = False", fillcolor="#e3f1fb"] ;
16 -> 18 ;
19 [label="gini = 0.0\nsamples = 1\nvalue = [1, 0]\nclass = True", fillcolor="#e58139"] ;
18 -> 19 ;
20 [label="number <= 22.5\ngini = 0.494\nsamples = 38\nvalue = [17, 21]\nclass = False", fillcolor="#d9ecfa"] ;
18 -> 20 ;
21 [label="gini = 0.0\nsamples = 2\nvalue = [0, 2]\nclass = False", fillcolor="#399de5"] ;
20 -> 21 ;
22 [label="number <= 23.5\ngini = 0.498\nsamples = 36\nvalue = [17, 19]\nclass = False", fillcolor="#eaf5fc"] ;
20 -> 22 ;
23 [label="gini = 0.0\nsamples = 1\nvalue = [1, 0]\nclass = True", fillcolor="#e58139"] ;
22 -> 23 ;
24 [label="number <= 24.5\ngini = 0.496\nsamples = 35\nvalue = [16, 19]\nclass = False", fillcolor="#e0f0fb"] ;
22 -> 24 ;
25 [label="gini = 0.0\nsamples = 1\nvalue = [0, 1]\nclass = False", fillcolor="#399de5"] ;
24 -> 25 ;
26 [label="number <= 26.5\ngini = 0.498\nsamples = 34\nvalue = [16, 18]\nclass = False", fillcolor="#e9f4fc"] ;
24 -> 26 ;
27 [label="gini = 0.0\nsamples = 1\nvalue = [1, 0]\nclass = True", fillcolor="#e58139"] ;
26 -> 27 ;
28 [label="number <= 30.5\ngini = 0.496\nsamples = 33\nvalue = [15, 18]\nclass = False", fillcolor="#deeffb"] ;
26 -> 28 ;
29 [label="gini = 0.0\nsamples = 2\nvalue = [0, 2]\nclass = False", fillcolor="#399de5"] ;
28 -> 29 ;
30 [label="number <= 31.5\ngini = 0.499\nsamples = 31\nvalue = [15, 16]\nclass = False", fillcolor="#f3f9fd"] ;
28 -> 30 ;
31 [label="gini = 0.0\nsamples = 1\nvalue = [1, 0]\nclass = True", fillcolor="#e58139"] ;
30 -> 31 ;
32 [label="number <= 32.5\ngini = 0.498\nsamples = 30\nvalue = [14, 16]\nclass = False", fillcolor="#e6f3fc"] ;
30 -> 32 ;
33 [label="gini = 0.0\nsamples = 1\nvalue = [0, 1]\nclass = False", fillcolor="#399de5"] ;
32 -> 33 ;
34 [label="number <= 33.5\ngini = 0.499\nsamples = 29\nvalue = [14, 15]\nclass = False", fillcolor="#f2f8fd"] ;
32 -> 34 ;
35 [label="gini = 0.0\nsamples = 1\nvalue = [1, 0]\nclass = True", fillcolor="#e58139"] ;
34 -> 35 ;
36 [label="number <= 34.5\ngini = 0.497\nsamples = 28\nvalue = [13, 15]\nclass = False", fillcolor="#e5f2fc"] ;
34 -> 36 ;
37 [label="gini = 0.0\nsamples = 1\nvalue = [0, 1]\nclass = False", fillcolor="#399de5"] ;
36 -> 37 ;
38 [label="number <= 36.5\ngini = 0.499\nsamples = 27\nvalue = [13, 14]\nclass = False", fillcolor="#f1f8fd"] ;
36 -> 38 ;
39 [label="gini = 0.0\nsamples = 1\nvalue = [1, 0]\nclass = True", fillcolor="#e58139"] ;
38 -> 39 ;
40 [label="number <= 42.5\ngini = 0.497\nsamples = 26\nvalue = [12, 14]\nclass = False", fillcolor="#e3f1fb"] ;
38 -> 40 ;
41 [label="gini = 0.0\nsamples = 2\nvalue = [0, 2]\nclass = False", fillcolor="#399de5"] ;
40 -> 41 ;
42 [label="number <= 46.5\ngini = 0.5\nsamples = 24\nvalue = [12, 12]\nclass = True", fillcolor="#ffffff"] ;
40 -> 42 ;
43 [label="gini = 0.0\nsamples = 1\nvalue = [1, 0]\nclass = True", fillcolor="#e58139"] ;
42 -> 43 ;
44 [label="number <= 48.5\ngini = 0.499\nsamples = 23\nvalue = [11, 12]\nclass = False", fillcolor="#eff7fd"] ;
42 -> 44 ;
45 [label="gini = 0.0\nsamples = 1\nvalue = [0, 1]\nclass = False", fillcolor="#399de5"] ;
44 -> 45 ;
46 [label="number <= 56.5\ngini = 0.5\nsamples = 22\nvalue = [11, 11]\nclass = True", fillcolor="#ffffff"] ;
44 -> 46 ;
47 [label="number <= 52.5\ngini = 0.375\nsamples = 4\nvalue = [3, 1]\nclass = True", fillcolor="#eeab7b"] ;
46 -> 47 ;
48 [label="number <= 50.5\ngini = 0.5\nsamples = 2\nvalue = [1, 1]\nclass = True", fillcolor="#ffffff"] ;
47 -> 48 ;
49 [label="gini = 0.0\nsamples = 1\nvalue = [1, 0]\nclass = True", fillcolor="#e58139"] ;
48 -> 49 ;
50 [label="gini = 0.0\nsamples = 1\nvalue = [0, 1]\nclass = False", fillcolor="#399de5"] ;
48 -> 50 ;
51 [label="gini = 0.0\nsamples = 2\nvalue = [2, 0]\nclass = True", fillcolor="#e58139"] ;
47 -> 51 ;
52 [label="number <= 68.5\ngini = 0.494\nsamples = 18\nvalue = [8, 10]\nclass = False", fillcolor="#d7ebfa"] ;
46 -> 52 ;
53 [label="number <= 61.5\ngini = 0.408\nsamples = 7\nvalue = [2, 5]\nclass = False", fillcolor="#88c4ef"] ;
52 -> 53 ;
54 [label="number <= 58.5\ngini = 0.5\nsamples = 4\nvalue = [2, 2]\nclass = True", fillcolor="#ffffff"] ;
53 -> 54 ;
55 [label="gini = 0.0\nsamples = 1\nvalue = [0, 1]\nclass = False", fillcolor="#399de5"] ;
54 -> 55 ;
56 [label="number <= 59.5\ngini = 0.444\nsamples = 3\nvalue = [2, 1]\nclass = True", fillcolor="#f2c09c"] ;
54 -> 56 ;
57 [label="gini = 0.0\nsamples = 1\nvalue = [1, 0]\nclass = True", fillcolor="#e58139"] ;
56 -> 57 ;
58 [label="number <= 60.5\ngini = 0.5\nsamples = 2\nvalue = [1, 1]\nclass = True", fillcolor="#ffffff"] ;
56 -> 58 ;
59 [label="gini = 0.0\nsamples = 1\nvalue = [0, 1]\nclass = False", fillcolor="#399de5"] ;
58 -> 59 ;
60 [label="gini = 0.0\nsamples = 1\nvalue = [1, 0]\nclass = True", fillcolor="#e58139"] ;
58 -> 60 ;
61 [label="gini = 0.0\nsamples = 3\nvalue = [0, 3]\nclass = False", fillcolor="#399de5"] ;
53 -> 61 ;
62 [label="number <= 95.5\ngini = 0.496\nsamples = 11\nvalue = [6, 5]\nclass = True", fillcolor="#fbeade"] ;
52 -> 62 ;
63 [label="number <= 70.5\ngini = 0.48\nsamples = 10\nvalue = [6, 4]\nclass = True", fillcolor="#f6d5bd"] ;
62 -> 63 ;
64 [label="gini = 0.0\nsamples = 1\nvalue = [1, 0]\nclass = True", fillcolor="#e58139"] ;
63 -> 64 ;
65 [label="number <= 73.5\ngini = 0.494\nsamples = 9\nvalue = [5, 4]\nclass = True", fillcolor="#fae6d7"] ;
63 -> 65 ;
66 [label="gini = 0.0\nsamples = 1\nvalue = [0, 1]\nclass = False", fillcolor="#399de5"] ;
65 -> 66 ;
67 [label="number <= 77.5\ngini = 0.469\nsamples = 8\nvalue = [5, 3]\nclass = True", fillcolor="#f5cdb0"] ;
65 -> 67 ;
68 [label="gini = 0.0\nsamples = 2\nvalue = [2, 0]\nclass = True", fillcolor="#e58139"] ;
67 -> 68 ;
69 [label="number <= 80.5\ngini = 0.5\nsamples = 6\nvalue = [3, 3]\nclass = True", fillcolor="#ffffff"] ;
67 -> 69 ;
70 [label="gini = 0.0\nsamples = 2\nvalue = [0, 2]\nclass = False", fillcolor="#399de5"] ;
69 -> 70 ;
71 [label="number <= 87.5\ngini = 0.375\nsamples = 4\nvalue = [3, 1]\nclass = True", fillcolor="#eeab7b"] ;
69 -> 71 ;
72 [label="gini = 0.0\nsamples = 2\nvalue = [2, 0]\nclass = True", fillcolor="#e58139"] ;
71 -> 72 ;
73 [label="number <= 93.5\ngini = 0.5\nsamples = 2\nvalue = [1, 1]\nclass = True", fillcolor="#ffffff"] ;
71 -> 73 ;
74 [label="gini = 0.0\nsamples = 1\nvalue = [0, 1]\nclass = False", fillcolor="#399de5"] ;
73 -> 74 ;
75 [label="gini = 0.0\nsamples = 1\nvalue = [1, 0]\nclass = True", fillcolor="#e58139"] ;
73 -> 75 ;
76 [label="gini = 0.0\nsamples = 1\nvalue = [0, 1]\nclass = False", fillcolor="#399de5"] ;
62 -> 76 ;
}